FANN_FLO_2.1
num_layers=12
learning_rate=0.700000
connection_rate=1.000000
network_type=1
learning_momentum=0.000000
training_algorithm=2
train_error_function=1
train_stop_function=0
cascade_output_change_fraction=0.010000
quickprop_decay=-0.000100
quickprop_mu=1.750000
rprop_increase_factor=1.200000
rprop_decrease_factor=0.500000
rprop_delta_min=0.000000
rprop_delta_max=50.000000
rprop_delta_zero=0.100000
cascade_output_stagnation_epochs=12
cascade_candidate_change_fraction=0.010000
cascade_candidate_stagnation_epochs=12
cascade_max_out_epochs=150
cascade_min_out_epochs=50
cascade_max_cand_epochs=150
cascade_min_cand_epochs=50
cascade_num_candidate_groups=2
bit_fail_limit=3.49999994039535522461e-01
cascade_candidate_limit=1.00000000000000000000e+03
cascade_weight_multiplier=4.00000005960464477539e-01
cascade_activation_functions_count=10
cascade_activation_functions=3 5 7 8 10 11 14 15 16 17 
cascade_activation_steepnesses_count=4
cascade_activation_steepnesses=2.50000000000000000000e-01 5.00000000000000000000e-01 7.50000000000000000000e-01 1.00000000000000000000e+00 
layer_sizes=14 1 1 1 1 1 1 1 1 1 1 2 
scale_included=0
neurons (num_inputs, activation_function, activation_steepness)=(0, 0, 0.00000000000000000000e+00) (0, 0, 0.00000000000000000000e+00) (0, 0, 0.00000000000000000000e+00) (0, 0, 0.00000000000000000000e+00) (0, 0, 0.00000000000000000000e+00) (0, 0, 0.00000000000000000000e+00) (0, 0, 0.00000000000000000000e+00) (0, 0, 0.00000000000000000000e+00) (0, 0, 0.00000000000000000000e+00) (0, 0, 0.00000000000000000000e+00) (0, 0, 0.00000000000000000000e+00) (0, 0, 0.00000000000000000000e+00) (0, 0, 0.00000000000000000000e+00) (0, 0, 0.00000000000000000000e+00) (14, 7, 2.50000000000000000000e-01) (15, 10, 5.00000000000000000000e-01) (16, 7, 2.50000000000000000000e-01) (17, 7, 2.50000000000000000000e-01) (18, 7, 5.00000000000000000000e-01) (19, 7, 2.50000000000000000000e-01) (20, 7, 2.50000000000000000000e-01) (21, 7, 2.50000000000000000000e-01) (22, 3, 7.50000000000000000000e-01) (23, 7, 2.50000000000000000000e-01) (24, 4, 5.00000000000000000000e-01) (24, 4, 5.00000000000000000000e-01) 
connections (connected_to_neuron, weight)=(0, 7.31450119018554687500e+01) (1, -6.03427529335021972656e-01) (2, 2.48913478851318359375e+01) (3, 8.67200927734375000000e+01) (4, 7.71381199359893798828e-01) (5, 4.62856750488281250000e+01) (6, -4.75898094177246093750e+01) (7, 1.69190496206283569336e-01) (8, -6.76204395294189453125e+00) (9, 6.42508697509765625000e+00) (10, 6.94294869899749755859e-01) (11, 1.80783808231353759766e+00) (12, 1.38836458325386047363e-01) (13, 1.12865459918975830078e+00) (0, -1.08788042068481445312e+01) (1, 8.79012107849121093750e+00) (2, 2.66937808990478515625e+01) (3, 1.06189985275268554688e+01) (4, 2.64578964561223983765e-02) (5, -5.33955230712890625000e+01) (6, 2.14672546386718750000e+01) (7, 1.85701858997344970703e+00) (8, 9.30263137817382812500e+01) (9, -3.41641693115234375000e+01) (10, 2.55727618932723999023e-02) (11, -1.07785629272460937500e+02) (12, -2.59868711233139038086e-01) (13, -4.20400053262710571289e-01) (14, 1.27566760253906250000e+03) (0, 9.72398579120635986328e-01) (1, 2.10079836845397949219e+00) (2, 1.19686387479305267334e-01) (3, 8.37307333946228027344e-01) (4, 1.83263111114501953125e+00) (5, -3.83010911941528320312e+00) (6, -6.10053777694702148438e+00) (7, 5.89959859848022460938e-01) (8, 2.67328310012817382812e+00) (9, 4.98680257797241210938e+00) (10, 6.91786170005798339844e-01) (11, 2.71115469932556152344e+00) (12, 3.78817260265350341797e-01) (13, -1.63222980499267578125e+00) (14, 6.52864685058593750000e+02) (15, 1.01560317993164062500e+02) (0, 1.50000000000000000000e+03) (1, 1.50000000000000000000e+03) (2, 1.50000000000000000000e+03) (3, 1.50000000000000000000e+03) (4, 1.50000000000000000000e+03) (5, 1.50000000000000000000e+03) (6, 1.50000000000000000000e+03) (7, 1.50000000000000000000e+03) (8, 1.50000000000000000000e+03) (9, 1.50000000000000000000e+03) (10, 1.50000000000000000000e+03) (11, 1.50000000000000000000e+03) (12, 1.50000000000000000000e+03) (13, 1.50000000000000000000e+03) (14, 1.50000000000000000000e+03) (15, 1.50000000000000000000e+03) (16, 1.50000000000000000000e+03) (0, 1.50000000000000000000e+03) (1, 1.50000000000000000000e+03) (2, 1.50000000000000000000e+03) (3, 1.50000000000000000000e+03) (4, 1.50000000000000000000e+03) (5, 1.50000000000000000000e+03) (6, 1.50000000000000000000e+03) (7, 1.50000000000000000000e+03) (8, 1.50000000000000000000e+03) (9, 1.50000000000000000000e+03) (10, 1.50000000000000000000e+03) (11, 1.50000000000000000000e+03) (12, 1.50000000000000000000e+03) (13, 1.50000000000000000000e+03) (14, 1.50000000000000000000e+03) (15, 1.50000000000000000000e+03) (16, 1.50000000000000000000e+03) (17, 1.50000000000000000000e+03) (0, -1.08207333087921142578e+00) (1, 4.90691328048706054688e+00) (2, -2.63561844825744628906e+00) (3, -1.79432928562164306641e+00) (4, 9.26708936691284179688e-01) (5, -8.84542083740234375000e+01) (6, 2.54325389862060546875e+01) (7, 3.96318405866622924805e-01) (8, 1.50000000000000000000e+03) (9, 4.96427088975906372070e-01) (10, 1.57176136970520019531e+00) (11, 5.33256721496582031250e+00) (12, 6.38495922088623046875e-01) (13, -7.30175256729125976562e-01) (14, 3.65126525878906250000e+02) (15, -1.50024682283401489258e-01) (16, -5.88622016906738281250e+01) (17, 1.50000000000000000000e+03) (18, 1.50000000000000000000e+03) (0, -1.74665367603302001953e+00) (1, -1.26151695251464843750e+01) (2, -4.27190017700195312500e+01) (3, 3.77980194091796875000e+01) (4, -1.46207976341247558594e+00) (5, 3.73215942382812500000e+02) (6, -3.68128371238708496094e+00) (7, 3.20162606239318847656e+00) (8, -1.91499740600585937500e+02) (9, 1.89382820129394531250e+01) (10, 8.13069283962249755859e-01) (11, -8.27670955657958984375e+00) (12, 8.56552600860595703125e-01) (13, -5.51905441284179687500e+00) (14, 2.29466644287109375000e+02) (15, -6.92615280151367187500e+01) (16, -9.14215515136718750000e+02) (17, 1.50000000000000000000e+03) (18, 1.50000000000000000000e+03) (19, 6.68204833984375000000e+02) (0, -7.54213485717773437500e+01) (1, -5.93385658264160156250e+01) (2, -4.51602287292480468750e+01) (3, -2.15762176513671875000e+01) (4, 2.23664236068725585938e+00) (5, -1.50000000000000000000e+03) (6, 9.13793457031250000000e+02) (7, 1.28263688087463378906e+00) (8, 1.26219995117187500000e+03) (9, 1.69277648925781250000e+01) (10, 1.20897674560546875000e+00) (11, 4.57665729522705078125e+00) (12, 1.59039509296417236328e+00) (13, 5.32215118408203125000e-01) (14, -4.08292938232421875000e+02) (15, -1.83446350097656250000e+01) (16, 1.50000000000000000000e+03) (17, 1.50000000000000000000e+03) (18, 1.50000000000000000000e+03) (19, 1.06401843261718750000e+03) (20, -1.49990161132812500000e+03) (0, 1.88544254302978515625e+01) (1, 3.82226638793945312500e+01) (2, -3.32801103591918945312e-01) (3, -5.46478891372680664062e+00) (4, -1.06683802604675292969e+00) (5, -3.89040985107421875000e+01) (6, -7.31697082519531250000e+00) (7, -1.03430759906768798828e+00) (8, 4.30205879211425781250e+01) (9, -9.50915291905403137207e-02) (10, 2.21988275647163391113e-01) (11, 1.07049741744995117188e+01) (12, -1.16352565586566925049e-01) (13, 3.47676545381546020508e-01) (14, 4.83911705017089843750e+01) (15, -2.28163738250732421875e+01) (16, -1.50000000000000000000e+03) (17, 1.50000000000000000000e+03) (18, 1.50000000000000000000e+03) (19, -3.07314270019531250000e+02) (20, 1.41315765380859375000e+02) (21, 2.22710685729980468750e+01) (0, 3.49718261718750000000e+02) (1, -3.15321716308593750000e+02) (2, -1.58230171203613281250e+01) (3, -1.66236476898193359375e+01) (4, 1.11140811443328857422e+00) (5, -6.32538208007812500000e+02) (6, 1.50000000000000000000e+03) (7, -2.05299472808837890625e+00) (8, 1.50000000000000000000e+03) (9, 5.87700176239013671875e+00) (10, 1.18140137195587158203e+00) (11, 9.73414325714111328125e+00) (12, 2.80697673559188842773e-01) (13, -5.41635788977146148682e-02) (14, -1.14487280273437500000e+03) (15, 1.29197902679443359375e+01) (16, 9.98234130859375000000e+02) (17, 1.50000000000000000000e+03) (18, 1.50000000000000000000e+03) (19, -6.73115295410156250000e+02) (20, -1.33211730957031250000e+02) (21, -1.50000000000000000000e+03) (22, 5.48166704177856445312e+00) (0, 2.04666900634765625000e+00) (1, -3.89961934089660644531e+00) (2, -5.13783025741577148438e+00) (3, 1.29880237579345703125e+00) (4, -1.99337232112884521484e+00) (5, 8.07119464874267578125e+00) (6, 1.16460025310516357422e+00) (7, -1.62623977661132812500e+00) (8, 9.02453804016113281250e+00) (9, 2.51456203460693359375e+01) (10, -1.08091926574707031250e+00) (11, 2.47681121826171875000e+01) (12, -1.08175349235534667969e+00) (13, -3.09760761260986328125e+00) (14, -1.49815734863281250000e+03) (15, -7.97272205352783203125e+00) (16, -1.49999987792968750000e+03) (17, 1.50000000000000000000e+03) (18, 1.50000000000000000000e+03) (19, -2.33951232910156250000e+02) (20, 1.86314983367919921875e+01) (21, 1.75600872039794921875e+01) (22, 4.21843957901000976562e+00) (23, -9.06432247161865234375e+00) (0, -1.39146649837493896484e+00) (1, 4.66640567779541015625e+00) (2, 4.35559368133544921875e+00) (3, -1.33103191852569580078e+00) (4, 2.84848093986511230469e+00) (5, -6.61646556854248046875e+00) (6, -1.68589019775390625000e+00) (7, 1.46920895576477050781e+00) (8, -7.95627021789550781250e+00) (9, -2.94374580383300781250e+01) (10, 1.65770590305328369141e+00) (11, -2.98518142700195312500e+01) (12, 1.37197446823120117188e+00) (13, 4.11450862884521484375e+00) (14, 1.50000000000000000000e+03) (15, 7.36471986770629882812e+00) (16, 1.50000000000000000000e+03) (17, 1.50000000000000000000e+03) (18, 1.50000000000000000000e+03) (19, 1.00812919616699218750e+02) (20, -1.44918975830078125000e+01) (21, -1.80059604644775390625e+01) (22, -4.73831462860107421875e+00) (23, 9.89993476867675781250e+00) 
