FANN_FLO_2.1
num_layers=12
learning_rate=0.700000
connection_rate=1.000000
network_type=1
learning_momentum=0.000000
training_algorithm=2
train_error_function=1
train_stop_function=0
cascade_output_change_fraction=0.010000
quickprop_decay=-0.000100
quickprop_mu=1.750000
rprop_increase_factor=1.200000
rprop_decrease_factor=0.500000
rprop_delta_min=0.000000
rprop_delta_max=50.000000
rprop_delta_zero=0.100000
cascade_output_stagnation_epochs=12
cascade_candidate_change_fraction=0.010000
cascade_candidate_stagnation_epochs=12
cascade_max_out_epochs=150
cascade_min_out_epochs=50
cascade_max_cand_epochs=150
cascade_min_cand_epochs=50
cascade_num_candidate_groups=2
bit_fail_limit=3.49999994039535522461e-01
cascade_candidate_limit=1.00000000000000000000e+03
cascade_weight_multiplier=4.00000005960464477539e-01
cascade_activation_functions_count=10
cascade_activation_functions=3 5 7 8 10 11 14 15 16 17 
cascade_activation_steepnesses_count=4
cascade_activation_steepnesses=2.50000000000000000000e-01 5.00000000000000000000e-01 7.50000000000000000000e-01 1.00000000000000000000e+00 
layer_sizes=14 1 1 1 1 1 1 1 1 1 1 2 
scale_included=0
neurons (num_inputs, activation_function, activation_steepness)=(0, 0, 0.00000000000000000000e+00) (0, 0, 0.00000000000000000000e+00) (0, 0, 0.00000000000000000000e+00) (0, 0, 0.00000000000000000000e+00) (0, 0, 0.00000000000000000000e+00) (0, 0, 0.00000000000000000000e+00) (0, 0, 0.00000000000000000000e+00) (0, 0, 0.00000000000000000000e+00) (0, 0, 0.00000000000000000000e+00) (0, 0, 0.00000000000000000000e+00) (0, 0, 0.00000000000000000000e+00) (0, 0, 0.00000000000000000000e+00) (0, 0, 0.00000000000000000000e+00) (0, 0, 0.00000000000000000000e+00) (14, 8, 2.50000000000000000000e-01) (15, 3, 1.00000000000000000000e+00) (16, 10, 1.00000000000000000000e+00) (17, 3, 1.00000000000000000000e+00) (18, 7, 2.50000000000000000000e-01) (19, 7, 2.50000000000000000000e-01) (20, 3, 7.50000000000000000000e-01) (21, 7, 5.00000000000000000000e-01) (22, 7, 2.50000000000000000000e-01) (23, 7, 2.50000000000000000000e-01) (24, 4, 5.00000000000000000000e-01) (24, 4, 5.00000000000000000000e-01) 
connections (connected_to_neuron, weight)=(0, 1.50000000000000000000e+03) (1, 1.50000000000000000000e+03) (2, 1.50000000000000000000e+03) (3, 1.50000000000000000000e+03) (4, 1.50000000000000000000e+03) (5, 1.50000000000000000000e+03) (6, 1.50000000000000000000e+03) (7, 1.50000000000000000000e+03) (8, 1.50000000000000000000e+03) (9, 1.50000000000000000000e+03) (10, 1.50000000000000000000e+03) (11, 1.50000000000000000000e+03) (12, 1.50000000000000000000e+03) (13, 1.50000000000000000000e+03) (0, 1.02149436950683593750e+02) (1, -4.46317214965820312500e+01) (2, -5.46000480651855468750e+01) (3, 1.43233709335327148438e+01) (4, -3.41960310935974121094e+00) (5, 1.49962158203125000000e+03) (6, 1.49961975097656250000e+03) (7, 2.27592206001281738281e+00) (8, 1.50000000000000000000e+03) (9, 1.57862081527709960938e+01) (10, 1.44601738452911376953e+00) (11, 8.37426304817199707031e-01) (12, 1.33835196495056152344e+00) (13, -3.46872425079345703125e+00) (14, 2.94216394424438476562e+00) (0, -7.22626464843750000000e+02) (1, 3.66185089111328125000e+02) (2, -4.46754531860351562500e+01) (3, 1.05531482696533203125e+01) (4, 2.23450412750244140625e+01) (5, -1.46102685546875000000e+03) (6, 4.30361114501953125000e+02) (7, 1.98904380798339843750e+01) (8, -1.25000000000000000000e+03) (9, -3.23401458740234375000e+02) (10, 1.96947822570800781250e+01) (11, -3.34808235168457031250e+01) (12, 7.03300189971923828125e+00) (13, 2.08149318695068359375e+01) (14, 2.56780471801757812500e+01) (15, -1.44063978195190429688e+01) (0, -2.50784225463867187500e+02) (1, -2.29319839477539062500e+02) (2, -8.22191429138183593750e+00) (3, 3.42339172363281250000e+01) (4, -1.42524778842926025391e+00) (5, -1.50000000000000000000e+03) (6, 1.43773962402343750000e+03) (7, -1.25709199905395507812e+00) (8, 1.40000000000000000000e+03) (9, -3.18898239135742187500e+01) (10, -3.60009789466857910156e+00) (11, -8.29824924468994140625e+00) (12, -1.77350533008575439453e+00) (13, -3.12009167671203613281e+00) (14, -2.44264812469482421875e+01) (15, -1.66753570556640625000e+02) (16, 1.70972320556640625000e+02) (0, 1.50000000000000000000e+03) (1, 1.50000000000000000000e+03) (2, 1.50000000000000000000e+03) (3, 1.50000000000000000000e+03) (4, 1.50000000000000000000e+03) (5, 1.50000000000000000000e+03) (6, 1.50000000000000000000e+03) (7, 1.50000000000000000000e+03) (8, 1.50000000000000000000e+03) (9, 1.50000000000000000000e+03) (10, 1.50000000000000000000e+03) (11, 1.50000000000000000000e+03) (12, 1.50000000000000000000e+03) (13, 1.50000000000000000000e+03) (14, 1.50000000000000000000e+03) (15, 1.50000000000000000000e+03) (16, 1.50000000000000000000e+03) (17, 1.50000000000000000000e+03) (0, 1.50000000000000000000e+03) (1, 1.50000000000000000000e+03) (2, 1.50000000000000000000e+03) (3, 1.50000000000000000000e+03) (4, 1.50000000000000000000e+03) (5, 1.50000000000000000000e+03) (6, 1.50000000000000000000e+03) (7, 1.50000000000000000000e+03) (8, 1.50000000000000000000e+03) (9, 1.50000000000000000000e+03) (10, 1.50000000000000000000e+03) (11, 1.50000000000000000000e+03) (12, 1.50000000000000000000e+03) (13, 1.50000000000000000000e+03) (14, 1.50000000000000000000e+03) (15, 1.50000000000000000000e+03) (16, 1.50000000000000000000e+03) (17, 1.50000000000000000000e+03) (18, 1.50000000000000000000e+03) (0, 8.26141262054443359375e+00) (1, 3.64463539123535156250e+01) (2, -6.68818740844726562500e+01) (3, 8.46703910827636718750e+00) (4, 5.52017517089843750000e+01) (5, -1.50000000000000000000e+03) (6, 7.93619384765625000000e+02) (7, 1.35232281684875488281e+00) (8, -1.25000000000000000000e+03) (9, -1.74146366119384765625e+01) (10, -6.96809291839599609375e-01) (11, 3.39295288085937500000e+02) (12, 4.66604888439178466797e-01) (13, 1.64642353057861328125e+01) (14, -1.03072671890258789062e+01) (15, -1.50000000000000000000e+03) (16, -4.43129913330078125000e+02) (17, 1.49951611328125000000e+03) (18, 1.50000000000000000000e+03) (19, 1.50000000000000000000e+03) (0, 1.50000000000000000000e+03) (1, 1.50000000000000000000e+03) (2, 1.50000000000000000000e+03) (3, 1.50000000000000000000e+03) (4, 1.50000000000000000000e+03) (5, 1.50000000000000000000e+03) (6, 1.50000000000000000000e+03) (7, 1.50000000000000000000e+03) (8, 1.50000000000000000000e+03) (9, 1.50000000000000000000e+03) (10, 1.50000000000000000000e+03) (11, 1.50000000000000000000e+03) (12, 1.50000000000000000000e+03) (13, 1.50000000000000000000e+03) (14, 1.50000000000000000000e+03) (15, 1.50000000000000000000e+03) (16, 1.50000000000000000000e+03) (17, 1.50000000000000000000e+03) (18, 1.50000000000000000000e+03) (19, 1.50000000000000000000e+03) (20, 1.50000000000000000000e+03) (0, -3.23923707008361816406e+00) (1, 4.95157661437988281250e+01) (2, 4.95219039916992187500e+00) (3, 4.61856937408447265625e+00) (4, 3.20812392234802246094e+00) (5, -3.79843994140625000000e+02) (6, 1.50000000000000000000e+03) (7, -1.51248598098754882812e+00) (8, 1.50000000000000000000e+03) (9, -1.28634178638458251953e+00) (10, -5.59729242324829101562e+00) (11, -6.52628946304321289062e+00) (12, -6.00733384490013122559e-02) (13, 5.04780006408691406250e+00) (14, -1.44923424720764160156e+00) (15, 3.93981361389160156250e+00) (16, 4.21361145019531250000e+02) (17, -3.55184078216552734375e-01) (18, 1.50000000000000000000e+03) (19, 1.50000000000000000000e+03) (20, 3.92232805490493774414e-01) (21, 1.50000000000000000000e+03) (0, 1.50000000000000000000e+03) (1, 1.50000000000000000000e+03) (2, 1.50000000000000000000e+03) (3, 1.50000000000000000000e+03) (4, 1.50000000000000000000e+03) (5, 1.50000000000000000000e+03) (6, 1.50000000000000000000e+03) (7, 1.50000000000000000000e+03) (8, 1.50000000000000000000e+03) (9, 1.50000000000000000000e+03) (10, 1.50000000000000000000e+03) (11, 1.50000000000000000000e+03) (12, 1.50000000000000000000e+03) (13, 1.50000000000000000000e+03) (14, 1.50000000000000000000e+03) (15, 1.50000000000000000000e+03) (16, 1.50000000000000000000e+03) (17, 1.50000000000000000000e+03) (18, 1.50000000000000000000e+03) (19, 1.50000000000000000000e+03) (20, 1.50000000000000000000e+03) (21, 1.50000000000000000000e+03) (22, 1.50000000000000000000e+03) (0, -9.45250396728515625000e+01) (1, 2.74609718322753906250e+01) (2, -3.15959334373474121094e+00) (3, 1.15375738143920898438e+01) (4, -9.14596080780029296875e+00) (5, 3.97432342529296875000e+02) (6, 3.27195510864257812500e+01) (7, 3.62672829627990722656e+00) (8, 1.50000000000000000000e+03) (9, -1.28572216033935546875e+01) (10, -9.24638938903808593750e+00) (11, 2.67785377502441406250e+01) (12, -2.41889691352844238281e+00) (13, -6.53319787979125976562e+00) (14, -3.38044776916503906250e+01) (15, -1.50167884826660156250e+01) (16, -9.20863819122314453125e+00) (17, -2.16492772102355957031e+00) (18, 1.50000000000000000000e+03) (19, 1.50000000000000000000e+03) (20, -1.17129459381103515625e+01) (21, 1.50000000000000000000e+03) (22, 1.27169570922851562500e+02) (23, 1.50000000000000000000e+03) (0, 1.02431823730468750000e+02) (1, -3.28988761901855468750e+01) (2, 3.28054118156433105469e+00) (3, -1.13563127517700195312e+01) (4, 1.66487007141113281250e+01) (5, -6.59369262695312500000e+02) (6, 6.79876556396484375000e+01) (7, -1.97094786167144775391e+00) (8, -8.50000000000000000000e+02) (9, 1.47548112869262695312e+01) (10, 6.08804607391357421875e+00) (11, -2.93270320892333984375e+01) (12, 1.54425072669982910156e+00) (13, 9.33849143981933593750e+00) (14, 3.86261825561523437500e+01) (15, 1.52467937469482421875e+01) (16, 1.05247039794921875000e+01) (17, 1.18226039409637451172e+00) (18, 1.50000000000000000000e+03) (19, 1.50000000000000000000e+03) (20, 1.22162361145019531250e+01) (21, 1.50000000000000000000e+03) (22, -1.22308815002441406250e+02) (23, 1.50000000000000000000e+03) 
