FANN_FLO_2.1
num_layers=10
learning_rate=0.700000
connection_rate=1.000000
network_type=1
learning_momentum=0.000000
training_algorithm=2
train_error_function=1
train_stop_function=0
cascade_output_change_fraction=0.010000
quickprop_decay=-0.000100
quickprop_mu=1.750000
rprop_increase_factor=1.200000
rprop_decrease_factor=0.500000
rprop_delta_min=0.000000
rprop_delta_max=50.000000
rprop_delta_zero=0.100000
cascade_output_stagnation_epochs=12
cascade_candidate_change_fraction=0.010000
cascade_candidate_stagnation_epochs=12
cascade_max_out_epochs=150
cascade_min_out_epochs=50
cascade_max_cand_epochs=150
cascade_min_cand_epochs=50
cascade_num_candidate_groups=2
bit_fail_limit=3.49999994039535522461e-01
cascade_candidate_limit=1.00000000000000000000e+03
cascade_weight_multiplier=4.00000005960464477539e-01
cascade_activation_functions_count=10
cascade_activation_functions=3 5 7 8 10 11 14 15 16 17 
cascade_activation_steepnesses_count=4
cascade_activation_steepnesses=2.50000000000000000000e-01 5.00000000000000000000e-01 7.50000000000000000000e-01 1.00000000000000000000e+00 
layer_sizes=11 1 1 1 1 1 1 1 1 2 
scale_included=0
neurons (num_inputs, activation_function, activation_steepness)=(0, 0, 0.00000000000000000000e+00) (0, 0, 0.00000000000000000000e+00) (0, 0, 0.00000000000000000000e+00) (0, 0, 0.00000000000000000000e+00) (0, 0, 0.00000000000000000000e+00) (0, 0, 0.00000000000000000000e+00) (0, 0, 0.00000000000000000000e+00) (0, 0, 0.00000000000000000000e+00) (0, 0, 0.00000000000000000000e+00) (0, 0, 0.00000000000000000000e+00) (0, 0, 0.00000000000000000000e+00) (11, 7, 5.00000000000000000000e-01) (12, 3, 2.50000000000000000000e-01) (13, 7, 2.50000000000000000000e-01) (14, 7, 5.00000000000000000000e-01) (15, 7, 2.50000000000000000000e-01) (16, 10, 7.50000000000000000000e-01) (17, 7, 7.50000000000000000000e-01) (18, 7, 5.00000000000000000000e-01) (19, 4, 5.00000000000000000000e-01) (19, 4, 5.00000000000000000000e-01) 
connections (connected_to_neuron, weight)=(0, -4.27455568313598632812e+00) (1, 9.45688605308532714844e-01) (2, 1.70720844268798828125e+01) (3, 1.93469381332397460938e+00) (4, 2.45663642883300781250e+00) (5, 3.25189514160156250000e+02) (6, -1.79976043701171875000e+01) (7, 3.67895066738128662109e-01) (8, -2.15411453247070312500e+01) (9, 2.89133042097091674805e-01) (10, 1.21044135093688964844e+00) (0, 2.31527786254882812500e+01) (1, 2.48641986846923828125e+01) (2, -3.00381870269775390625e+01) (3, 1.19160928726196289062e+01) (4, -4.99785041809082031250e+00) (5, 1.25752086639404296875e+01) (6, -6.24086952209472656250e+00) (7, 1.68161239624023437500e+01) (8, 1.32802686691284179688e+01) (9, -4.50824813842773437500e+01) (10, -4.49760055541992187500e+00) (11, -5.91566047668457031250e+01) (0, -4.92515295743942260742e-01) (1, -1.67269420623779296875e+00) (2, 3.00511169433593750000e+01) (3, 1.56136941909790039062e+00) (4, 1.77982914447784423828e+00) (5, 6.70415759086608886719e-01) (6, -7.49937152862548828125e+00) (7, -6.54265224933624267578e-01) (8, 1.62412242889404296875e+01) (9, 2.40293860435485839844e+00) (10, 2.00752139091491699219e+00) (11, -9.96060371398925781250e+00) (12, 1.49906298828125000000e+03) (0, 2.34562683105468750000e+00) (1, -4.97254699468612670898e-01) (2, 6.11148357391357421875e-01) (3, -5.06861591339111328125e+00) (4, 2.08923339843750000000e+00) (5, -2.75219078063964843750e+01) (6, 7.13385057449340820312e+00) (7, -3.31671452522277832031e+00) (8, 3.74070205688476562500e+01) (9, 6.30564355850219726562e+00) (10, 1.54749941825866699219e+00) (11, -1.61516151428222656250e+01) (12, -1.71448993682861328125e+00) (13, 1.46324499511718750000e+03) (0, -3.17344522476196289062e+00) (1, -2.62882041931152343750e+00) (2, -3.25602698326110839844e+00) (3, 1.07899902343750000000e+02) (4, 2.61664175987243652344e+00) (5, -1.11412773132324218750e+02) (6, -2.21416034698486328125e+01) (7, -1.65011394023895263672e+00) (8, 3.15398521423339843750e+01) (9, 2.16130504608154296875e+01) (10, 4.12731885910034179688e+00) (11, 1.50000000000000000000e+03) (12, 1.50000000000000000000e+03) (13, 1.49790979003906250000e+03) (14, 1.50000000000000000000e+03) (0, -5.69444923400878906250e+01) (1, -5.63139587402343750000e+02) (2, 1.35610294342041015625e+01) (3, -1.02642021179199218750e+02) (4, -1.06645002365112304688e+01) (5, -1.49405932617187500000e+03) (6, 4.16962432861328125000e+02) (7, -1.76878326416015625000e+02) (8, -1.46454077148437500000e+03) (9, -5.86599617004394531250e+01) (10, -1.14360752105712890625e+01) (11, -1.19607385253906250000e+03) (12, -1.37512585449218750000e+03) (13, -6.63304199218750000000e+02) (14, 1.50000000000000000000e+03) (15, -1.17726037597656250000e+03) (0, -5.21969854831695556641e-01) (1, -4.14230155944824218750e+00) (2, 8.06232511997222900391e-01) (3, 4.59948825836181640625e+00) (4, 1.21055908501148223877e-01) (5, 1.50000000000000000000e+03) (6, 1.45000000000000000000e+03) (7, 1.73894202709197998047e+00) (8, -3.74846482276916503906e+00) (9, 4.11122322082519531250e+00) (10, 1.60891914367675781250e+00) (11, 3.77611923217773437500e+01) (12, -5.07361022949218750000e+02) (13, -1.81667129516601562500e+02) (14, -6.68577941894531250000e+02) (15, -4.78744750976562500000e+02) (16, -2.48063297271728515625e+01) (0, 1.63878428936004638672e+00) (1, -2.14830017089843750000e+01) (2, 3.55541372299194335938e+00) (3, -1.80777072906494140625e+01) (4, 3.58783316612243652344e+00) (5, 1.50000000000000000000e+03) (6, 1.50000000000000000000e+03) (7, -8.61624336242675781250e+00) (8, 2.43438606262207031250e+01) (9, 1.16230940818786621094e+00) (10, 2.62467479705810546875e+00) (11, 1.50000000000000000000e+03) (12, 1.49331616210937500000e+03) (13, 1.50000000000000000000e+03) (14, 1.50000000000000000000e+03) (15, 1.50000000000000000000e+03) (16, 1.36628875732421875000e+02) (17, 1.50000000000000000000e+03) (0, 7.85668343305587768555e-02) (1, 1.12321681976318359375e+01) (2, -2.24929046630859375000e+00) (3, 7.35643625259399414062e+00) (4, 1.02907204627990722656e+00) (5, 7.15346145629882812500e+00) (6, -4.05541181564331054688e+00) (7, -2.20630455017089843750e+00) (8, 4.05767488479614257812e+00) (9, 2.56938457489013671875e-01) (10, 2.39085745811462402344e+00) (11, 4.02226501464843750000e+02) (12, -9.15188980102539062500e+00) (13, -4.88245239257812500000e+02) (14, -1.25253344726562500000e+03) (15, -1.02729082107543945312e+01) (16, -1.42055530548095703125e+01) (17, -1.49999926757812500000e+03) (18, -1.50000000000000000000e+03) (0, -7.12322294712066650391e-02) (1, -1.12562789916992187500e+01) (2, 2.01341414451599121094e+00) (3, -8.28802299499511718750e+00) (4, -1.39000058174133300781e-01) (5, -6.00310516357421875000e+00) (6, 4.12105941772460937500e+00) (7, 1.99858498573303222656e+00) (8, -3.73024177551269531250e+00) (9, -7.80478179454803466797e-01) (10, -2.63907957077026367188e+00) (11, -4.09380706787109375000e+02) (12, 8.92723846435546875000e+00) (13, 4.78325042724609375000e+02) (14, 1.27885363769531250000e+03) (15, 1.00608386993408203125e+01) (16, 1.42352056503295898438e+01) (17, 1.50000000000000000000e+03) (18, 1.50000000000000000000e+03) 
